<?xml version="1.0"?>
<opencv_storage>
<lent_out type_id="opencv-haar-classifier">
  <size>
    24 24</size>
  <stages>
    <_>
      <!-- stage 0 -->
      <trees>
        <_>
          <!-- tree 0 -->
          <_>
            <!-- root node -->
            <feature>
              <rects>
                <_>
                  0 0 3 1 -1.</_>
                <_>
                  1 0 1 1 3.</_></rects>
              <tilted>0</tilted></feature>
            <threshold>-2.0364450392662548e-005</threshold>
            <left_val>-1.</left_val>
            <right_val>1.</right_val></_></_></trees>
      <stage_threshold>1.</stage_threshold>
      <parent>-1</parent>
      <next>-1</next></_>
    <_>
      <!-- stage 1 -->
      <trees>
        <_>
          <!-- tree 0 -->
          <_>
            <!-- root node -->
            <feature>
              <rects>
                <_>
                  0 0 2 2 -1.</_>
                <_>
                  0 0 1 1 2.</_>
                <_>
                  1 1 1 1 2.</_></rects>
              <tilted>0</tilted></feature>
            <threshold>-6.0323069192236289e-005</threshold>
            <left_val>-1.</left_val>
            <right_val>1.</right_val></_></_></trees>
      <stage_threshold>1.</stage_threshold>
      <parent>0</parent>
      <next>-1</next></_>
    <_>
      <!-- stage 2 -->
      <trees>
        <_>
          <!-- tree 0 -->
          <_>
            <!-- root node -->
            <feature>
              <rects>
                <_>
                  0 0 1 9 -1.</_>
                <_>
                  0 3 1 3 3.</_></rects>
              <tilted>0</tilted></feature>
            <threshold>-4.0917078877100721e-005</threshold>
            <left_val>-1.</left_val>
            <right_val>1.</right_val></_></_></trees>
      <stage_threshold>1.</stage_threshold>
      <parent>1</parent>
      <next>-1</next></_>
    <_>
      <!-- stage 3 -->
      <trees>
        <_>
          <!-- tree 0 -->
          <_>
            <!-- root node -->
            <feature>
              <rects>
                <_>
                  0 0 1 4 -1.</_>
                <_>
                  0 2 1 2 2.</_></rects>
              <tilted>0</tilted></feature>
            <threshold>4.4808901293436065e-005</threshold>
            <left_val>1.</left_val>
            <right_val>-1.</right_val></_></_></trees>
      <stage_threshold>1.</stage_threshold>
      <parent>2</parent>
      <next>-1</next></_>
    <_>
      <!-- stage 4 -->
      <trees>
        <_>
          <!-- tree 0 -->
          <_>
            <!-- root node -->
            <feature>
              <rects>
                <_>
                  0 0 14 2 -1.</_>
                <_>
                  0 0 7 1 2.</_>
                <_>
                  7 1 7 1 2.</_></rects>
              <tilted>0</tilted></feature>
            <threshold>1.9723400473594666e-002</threshold>
            <left_val>-1.</left_val>
            <right_val>1.0000009536743164e+000</right_val></_></_></trees>
      <stage_threshold>1.0000009536743164e+000</stage_threshold>
      <parent>3</parent>
      <next>-1</next></_>
    <_>
      <!-- stage 5 -->
      <trees>
        <_>
          <!-- tree 0 -->
          <_>
            <!-- root node -->
            <feature>
              <rects>
                <_>
                  0 0 15 5 -1.</_>
                <_>
                  5 0 5 5 3.</_></rects>
              <tilted>0</tilted></feature>
            <threshold>6.2169890850782394e-002</threshold>
            <left_val>-1.</left_val>
            <right_val>1.0000009536743164e+000</right_val></_></_></trees>
      <stage_threshold>1.0000009536743164e+000</stage_threshold>
      <parent>4</parent>
      <next>-1</next></_></stages></lent_out>
</opencv_storage>
