<?xml version="1.0"?>
<opencv_storage>
<test_out type_id="opencv-haar-classifier">
  <size>
    24 24</size>
  <stages>
    <_>
      <!-- stage 0 -->
      <trees>
        <_>
          <!-- tree 0 -->
          <_>
            <!-- root node -->
            <feature>
              <rects>
                <_>
                  7 1 8 6 -1.</_>
                <_>
                  7 1 4 6 2.</_></rects>
              <tilted>1</tilted></feature>
            <threshold>8.6884081363677979e-002</threshold>
            <left_val>-1.</left_val>
            <right_node>1</right_node></_>
          <_>
            <!-- node 1 -->
            <feature>
              <rects>
                <_>
                  0 0 2 1 -1.</_>
                <_>
                  1 0 1 1 2.</_></rects>
              <tilted>0</tilted></feature>
            <threshold>0.</threshold>
            <left_val>0.</left_val>
            <right_val>1.</right_val></_></_></trees>
      <stage_threshold>1.</stage_threshold>
      <parent>-1</parent>
      <next>-1</next></_>
    <_>
      <!-- stage 1 -->
      <trees>
        <_>
          <!-- tree 0 -->
          <_>
            <!-- root node -->
            <feature>
              <rects>
                <_>
                  0 6 24 9 -1.</_>
                <_>
                  6 6 12 9 2.</_></rects>
              <tilted>0</tilted></feature>
            <threshold>-2.3306080698966980e-001</threshold>
            <left_node>1</left_node>
            <right_val>-1.0000070333480835e+000</right_val></_>
          <_>
            <!-- node 1 -->
            <feature>
              <rects>
                <_>
                  0 0 2 1 -1.</_>
                <_>
                  1 0 1 1 2.</_></rects>
              <tilted>0</tilted></feature>
            <threshold>1.3084760576020926e-004</threshold>
            <left_val>1.</left_val>
            <right_val>-1.0000070333480835e+000</right_val></_></_></trees>
      <stage_threshold>1.</stage_threshold>
      <parent>0</parent>
      <next>-1</next></_>
    <_>
      <!-- stage 2 -->
      <trees>
        <_>
          <!-- tree 0 -->
          <_>
            <!-- root node -->
            <feature>
              <rects>
                <_>
                  3 8 17 12 -1.</_>
                <_>
                  3 12 17 4 3.</_></rects>
              <tilted>0</tilted></feature>
            <threshold>-1.3822479546070099e-001</threshold>
            <left_node>1</left_node>
            <right_val>-9.7967952489852905e-001</right_val></_>
          <_>
            <!-- node 1 -->
            <feature>
              <rects>
                <_>
                  0 0 3 1 -1.</_>
                <_>
                  1 0 1 1 3.</_></rects>
              <tilted>0</tilted></feature>
            <threshold>8.6392741650342941e-005</threshold>
            <left_val>1.</left_val>
            <right_val>-1.0000020265579224e+000</right_val></_></_>
        <_>
          <!-- tree 1 -->
          <_>
            <!-- root node -->
            <feature>
              <rects>
                <_>
                  4 8 16 12 -1.</_>
                <_>
                  4 12 16 4 3.</_></rects>
              <tilted>0</tilted></feature>
            <threshold>-1.3800309598445892e-001</threshold>
            <left_val>9.5067167282104492e-001</left_val>
            <right_node>1</right_node></_>
          <_>
            <!-- node 1 -->
            <feature>
              <rects>
                <_>
                  10 5 12 6 -1.</_>
                <_>
                  16 5 6 3 2.</_>
                <_>
                  10 8 6 3 2.</_></rects>
              <tilted>0</tilted></feature>
            <threshold>7.2107780724763870e-003</threshold>
            <left_val>-6.4257121086120605e-001</left_val>
            <right_val>6.6402781009674072e-001</right_val></_></_></trees>
      <stage_threshold>-3.1565171480178833e-001</stage_threshold>
      <parent>1</parent>
      <next>-1</next></_></stages></test_out>
</opencv_storage>
